<?xml version="1.0"?>
<opencv_storage>
<cascade>
  <stageType>BOOST</stageType>
  <featureType>HAAR</featureType>
  <height>24</height>
  <width>24</width>
  <stageParams>
    <boostType>GAB</boostType>
    <minHitRate>9.9500000476837158e-01</minHitRate>
    <maxFalseAlarm>5.0000000000000000e-01</maxFalseAlarm>
    <weightTrimRate>9.4999998807907104e-01</weightTrimRate>
    <maxDepth>1</maxDepth>
    <maxWeakCount>100</maxWeakCount></stageParams>
  <featureParams>
    <maxCatCount>0</maxCatCount>
    <featSize>1</featSize>
    <mode>BASIC</mode></featureParams>
  <stageNum>7</stageNum>
  <stages>
    <!-- stage 0 -->
    <_>
      <maxWeakCount>1</maxWeakCount>
      <stageThreshold>1.</stageThreshold>
      <weakClassifiers>
        <_>
          <internalNodes>
            0 -1 6 5.8598041534423828e-01</internalNodes>
          <leafValues>
            -1. 1.</leafValues></_></weakClassifiers></_>
    <!-- stage 1 -->
    <_>
      <maxWeakCount>1</maxWeakCount>
      <stageThreshold>1.</stageThreshold>
      <weakClassifiers>
        <_>
          <internalNodes>
            0 -1 2 -1.5647908672690392e-02</internalNodes>
          <leafValues>
            -1. 1.</leafValues></_></weakClassifiers></_>
    <!-- stage 2 -->
    <_>
      <maxWeakCount>2</maxWeakCount>
      <stageThreshold>-6.9444790482521057e-02</stageThreshold>
      <weakClassifiers>
        <_>
          <internalNodes>
            0 -1 15 3.6920762062072754e-01</internalNodes>
          <leafValues>
            -9.8347109556198120e-01 1.</leafValues></_>
        <_>
          <internalNodes>
            0 -1 0 2.0379319787025452e-01</internalNodes>
          <leafValues>
            -1. 9.1402626037597656e-01</leafValues></_></weakClassifiers></_>
    <!-- stage 3 -->
    <_>
      <maxWeakCount>2</maxWeakCount>
      <stageThreshold>-3.5471171140670776e-01</stageThreshold>
      <weakClassifiers>
        <_>
          <internalNodes>
            0 -1 11 7.0641964673995972e-01</internalNodes>
          <leafValues>
            -9.5121949911117554e-01 1.</leafValues></_>
        <_>
          <internalNodes>
            0 -1 10 -3.8017902988940477e-03</internalNodes>
          <leafValues>
            5.9650778770446777e-01 -9.9404668807983398e-01</leafValues></_></weakClassifiers></_>
    <!-- stage 4 -->
    <_>
      <maxWeakCount>3</maxWeakCount>
      <stageThreshold>-1.3783946037292480e+00</stageThreshold>
      <weakClassifiers>
        <_>
          <internalNodes>
            0 -1 12 7.4152094125747681e-01</internalNodes>
          <leafValues>
            -9.5480227470397949e-01 7.7235770225524902e-01</leafValues></_>
        <_>
          <internalNodes>
            0 -1 1 -1.0101556777954102e-02</internalNodes>
          <leafValues>
            4.5439687371253967e-01 -9.3778008222579956e-01</leafValues></_>
        <_>
          <internalNodes>
            0 -1 14 4.1355337947607040e-02</internalNodes>
          <leafValues>
            -8.7798923254013062e-01 7.0216548442840576e-01</leafValues></_></weakClassifiers></_>
    <!-- stage 5 -->
    <_>
      <maxWeakCount>3</maxWeakCount>
      <stageThreshold>-1.2681859731674194e+00</stageThreshold>
      <weakClassifiers>
        <_>
          <internalNodes>
            0 -1 7 1.9636010751128197e-02</internalNodes>
          <leafValues>
            -9.0934842824935913e-01 6.2903225421905518e-01</leafValues></_>
        <_>
          <internalNodes>
            0 -1 3 4.6562626957893372e-03</internalNodes>
          <leafValues>
            -8.8675445318222046e-01 5.4129815101623535e-01</leafValues></_>
        <_>
          <internalNodes>
            0 -1 5 -9.1156158596277237e-03</internalNodes>
          <leafValues>
            5.5847364664077759e-01 -9.0013569593429565e-01</leafValues></_></weakClassifiers></_>
    <!-- stage 6 -->
    <_>
      <maxWeakCount>5</maxWeakCount>
      <stageThreshold>-1.7122859954833984e+00</stageThreshold>
      <weakClassifiers>
        <_>
          <internalNodes>
            0 -1 9 -3.7064391374588013e-01</internalNodes>
          <leafValues>
            5.4887217283248901e-01 -9.1860467195510864e-01</leafValues></_>
        <_>
          <internalNodes>
            0 -1 8 2.4260927457362413e-03</internalNodes>
          <leafValues>
            -9.5903301239013672e-01 4.3315264582633972e-01</leafValues></_>
        <_>
          <internalNodes>
            0 -1 16 -2.1793511696159840e-03</internalNodes>
          <leafValues>
            3.1417879462242126e-01 -9.9036216735839844e-01</leafValues></_>
        <_>
          <internalNodes>
            0 -1 13 5.6488394737243652e-02</internalNodes>
          <leafValues>
            -6.8540960550308228e-01 6.8125224113464355e-01</leafValues></_>
        <_>
          <internalNodes>
            0 -1 4 6.3608745113015175e-03</internalNodes>
          <leafValues>
            -9.3638807535171509e-01 5.3658252954483032e-01</leafValues></_></weakClassifiers></_></stages>
  <features>
    <_>
      <rects>
        <_>
          0 0 16 18 -1.</_>
        <_>
          0 0 8 9 2.</_>
        <_>
          8 9 8 9 2.</_></rects>
      <tilted>0</tilted></_>
    <_>
      <rects>
        <_>
          0 4 12 4 -1.</_>
        <_>
          4 4 4 4 3.</_></rects>
      <tilted>0</tilted></_>
    <_>
      <rects>
        <_>
          0 17 17 6 -1.</_>
        <_>
          0 20 17 3 2.</_></rects>
      <tilted>0</tilted></_>
    <_>
      <rects>
        <_>
          0 20 4 4 -1.</_>
        <_>
          0 22 4 2 2.</_></rects>
      <tilted>0</tilted></_>
    <_>
      <rects>
        <_>
          3 1 16 4 -1.</_>
        <_>
          3 1 8 2 2.</_>
        <_>
          11 3 8 2 2.</_></rects>
      <tilted>0</tilted></_>
    <_>
      <rects>
        <_>
          5 0 8 6 -1.</_>
        <_>
          5 2 8 2 3.</_></rects>
      <tilted>0</tilted></_>
    <_>
      <rects>
        <_>
          5 4 18 18 -1.</_>
        <_>
          5 10 18 6 3.</_></rects>
      <tilted>0</tilted></_>
    <_>
      <rects>
        <_>
          6 9 15 1 -1.</_>
        <_>
          11 9 5 1 3.</_></rects>
      <tilted>0</tilted></_>
    <_>
      <rects>
        <_>
          6 19 6 5 -1.</_>
        <_>
          9 19 3 5 2.</_></rects>
      <tilted>0</tilted></_>
    <_>
      <rects>
        <_>
          7 10 14 12 -1.</_>
        <_>
          7 16 14 6 2.</_></rects>
      <tilted>0</tilted></_>
    <_>
      <rects>
        <_>
          7 20 9 4 -1.</_>
        <_>
          7 22 9 2 2.</_></rects>
      <tilted>0</tilted></_>
    <_>
      <rects>
        <_>
          8 2 11 21 -1.</_>
        <_>
          8 9 11 7 3.</_></rects>
      <tilted>0</tilted></_>
    <_>
      <rects>
        <_>
          8 2 12 21 -1.</_>
        <_>
          8 9 12 7 3.</_></rects>
      <tilted>0</tilted></_>
    <_>
      <rects>
        <_>
          8 7 2 12 -1.</_>
        <_>
          8 11 2 4 3.</_></rects>
      <tilted>0</tilted></_>
    <_>
      <rects>
        <_>
          11 14 12 10 -1.</_>
        <_>
          11 14 6 5 2.</_>
        <_>
          17 19 6 5 2.</_></rects>
      <tilted>0</tilted></_>
    <_>
      <rects>
        <_>
          12 2 6 21 -1.</_>
        <_>
          12 9 6 7 3.</_></rects>
      <tilted>0</tilted></_>
    <_>
      <rects>
        <_>
          12 10 6 8 -1.</_>
        <_>
          12 10 3 4 2.</_>
        <_>
          15 14 3 4 2.</_></rects>
      <tilted>0</tilted></_></features></cascade>
</opencv_storage>
