<?xml version="1.0"?>
<opencv_storage>
<cascade>
  <stageType>BOOST</stageType>
  <featureType>HAAR</featureType>
  <height>32</height>
  <width>32</width>
  <stageParams>
    <boostType>GAB</boostType>
    <minHitRate>9.9500000476837158e-01</minHitRate>
    <maxFalseAlarm>5.0000000000000000e-01</maxFalseAlarm>
    <weightTrimRate>9.4999998807907104e-01</weightTrimRate>
    <maxDepth>1</maxDepth>
    <maxWeakCount>100</maxWeakCount></stageParams>
  <featureParams>
    <maxCatCount>0</maxCatCount>
    <featSize>1</featSize>
    <mode>BASIC</mode></featureParams>
  <stageNum>8</stageNum>
  <stages>
    <!-- stage 0 -->
    <_>
      <maxWeakCount>2</maxWeakCount>
      <stageThreshold>-6.6317349672317505e-02</stageThreshold>
      <weakClassifiers>
        <_>
          <internalNodes>
            0 -1 16 5.9373669326305389e-02</internalNodes>
          <leafValues>
            -9.9333333969116211e-01 9.7979795932769775e-01</leafValues></_>
        <_>
          <internalNodes>
            0 -1 0 1.0174204409122467e-01</internalNodes>
          <leafValues>
            -9.9331396818161011e-01 9.2701596021652222e-01</leafValues></_></weakClassifiers></_>
    <!-- stage 1 -->
    <_>
      <maxWeakCount>3</maxWeakCount>
      <stageThreshold>-1.0599848031997681e+00</stageThreshold>
      <weakClassifiers>
        <_>
          <internalNodes>
            0 -1 8 4.9531131982803345e-02</internalNodes>
          <leafValues>
            -9.8330551385879517e-01 9.3969851732254028e-01</leafValues></_>
        <_>
          <internalNodes>
            0 -1 4 -2.6499655097723007e-02</internalNodes>
          <leafValues>
            8.7606084346771240e-01 -9.6738171577453613e-01</leafValues></_>
        <_>
          <internalNodes>
            0 -1 15 4.7510102391242981e-02</internalNodes>
          <leafValues>
            -9.5274013280868530e-01 9.1770672798156738e-01</leafValues></_></weakClassifiers></_>
    <!-- stage 2 -->
    <_>
      <maxWeakCount>3</maxWeakCount>
      <stageThreshold>-1.1117641925811768e+00</stageThreshold>
      <weakClassifiers>
        <_>
          <internalNodes>
            0 -1 1 7.3046863079071045e-02</internalNodes>
          <leafValues>
            -9.7938144207000732e-01 7.7777779102325439e-01</leafValues></_>
        <_>
          <internalNodes>
            0 -1 18 -1.0284791886806488e-01</internalNodes>
          <leafValues>
            7.8924024105072021e-01 -9.3573576211929321e-01</leafValues></_>
        <_>
          <internalNodes>
            0 -1 11 -1.6319058835506439e-02</internalNodes>
          <leafValues>
            8.1962925195693970e-01 -9.2162305116653442e-01</leafValues></_></weakClassifiers></_>
    <!-- stage 3 -->
    <_>
      <maxWeakCount>3</maxWeakCount>
      <stageThreshold>-1.1268516778945923e+00</stageThreshold>
      <weakClassifiers>
        <_>
          <internalNodes>
            0 -1 2 3.4254856407642365e-02</internalNodes>
          <leafValues>
            -9.4585448503494263e-01 7.5845408439636230e-01</leafValues></_>
        <_>
          <internalNodes>
            0 -1 12 -2.2029727697372437e-03</internalNodes>
          <leafValues>
            7.9668927192687988e-01 -8.8160723447799683e-01</leafValues></_>
        <_>
          <internalNodes>
            0 -1 3 7.5401678681373596e-02</internalNodes>
          <leafValues>
            -9.7768640518188477e-01 7.0311087369918823e-01</leafValues></_></weakClassifiers></_>
    <!-- stage 4 -->
    <_>
      <maxWeakCount>2</maxWeakCount>
      <stageThreshold>-2.8679072856903076e-01</stageThreshold>
      <weakClassifiers>
        <_>
          <internalNodes>
            0 -1 17 2.3411568254232407e-03</internalNodes>
          <leafValues>
            -9.0338164567947388e-01 8.9830505847930908e-01</leafValues></_>
        <_>
          <internalNodes>
            0 -1 7 1.1656565219163895e-01</internalNodes>
          <leafValues>
            -9.6501541137695313e-01 6.1659091711044312e-01</leafValues></_></weakClassifiers></_>
    <!-- stage 5 -->
    <_>
      <maxWeakCount>3</maxWeakCount>
      <stageThreshold>-1.1373550891876221e+00</stageThreshold>
      <weakClassifiers>
        <_>
          <internalNodes>
            0 -1 9 1.3324363157153130e-02</internalNodes>
          <leafValues>
            -9.4415360689163208e-01 6.1777776479721069e-01</leafValues></_>
        <_>
          <internalNodes>
            0 -1 10 2.3823217488825321e-03</internalNodes>
          <leafValues>
            -9.2669224739074707e-01 5.8560889959335327e-01</leafValues></_>
        <_>
          <internalNodes>
            0 -1 6 2.7994167059659958e-02</internalNodes>
          <leafValues>
            -7.7881032228469849e-01 9.0502202510833740e-01</leafValues></_></weakClassifiers></_>
    <!-- stage 6 -->
    <_>
      <maxWeakCount>3</maxWeakCount>
      <stageThreshold>-1.1608754396438599e+00</stageThreshold>
      <weakClassifiers>
        <_>
          <internalNodes>
            0 -1 14 -1.1374008841812611e-02</internalNodes>
          <leafValues>
            8.1927710771560669e-01 -8.5126584768295288e-01</leafValues></_>
        <_>
          <internalNodes>
            0 -1 13 5.4040171205997467e-02</internalNodes>
          <leafValues>
            -9.4101369380950928e-01 6.3324683904647827e-01</leafValues></_>
        <_>
          <internalNodes>
            0 -1 19 -8.9613050222396851e-03</internalNodes>
          <leafValues>
            6.3140410184860229e-01 -8.5688352584838867e-01</leafValues></_></weakClassifiers></_>
    <!-- stage 7 -->
    <_>
      <maxWeakCount>2</maxWeakCount>
      <stageThreshold>-3.4134575724601746e-01</stageThreshold>
      <weakClassifiers>
        <_>
          <internalNodes>
            0 -1 20 2.3631157819181681e-03</internalNodes>
          <leafValues>
            -8.8834154605865479e-01 7.3544973134994507e-01</leafValues></_>
        <_>
          <internalNodes>
            0 -1 5 1.2304072268307209e-02</internalNodes>
          <leafValues>
            -9.3533176183700562e-01 5.4699575901031494e-01</leafValues></_></weakClassifiers></_></stages>
  <features>
    <_>
      <rects>
        <_>
          3 7 24 6 -1.</_>
        <_>
          11 7 8 6 3.</_></rects>
      <tilted>0</tilted></_>
    <_>
      <rects>
        <_>
          3 14 10 13 -1.</_>
        <_>
          8 14 5 13 2.</_></rects>
      <tilted>0</tilted></_>
    <_>
      <rects>
        <_>
          3 14 27 6 -1.</_>
        <_>
          3 17 27 3 2.</_></rects>
      <tilted>0</tilted></_>
    <_>
      <rects>
        <_>
          4 6 9 20 -1.</_>
        <_>
          4 16 9 10 2.</_></rects>
      <tilted>0</tilted></_>
    <_>
      <rects>
        <_>
          5 16 8 10 -1.</_>
        <_>
          5 16 4 5 2.</_>
        <_>
          9 21 4 5 2.</_></rects>
      <tilted>0</tilted></_>
    <_>
      <rects>
        <_>
          7 14 4 6 -1.</_>
        <_>
          7 17 4 3 2.</_></rects>
      <tilted>0</tilted></_>
    <_>
      <rects>
        <_>
          8 23 16 6 -1.</_>
        <_>
          8 25 16 2 3.</_></rects>
      <tilted>0</tilted></_>
    <_>
      <rects>
        <_>
          9 3 14 18 -1.</_>
        <_>
          9 12 14 9 2.</_></rects>
      <tilted>0</tilted></_>
    <_>
      <rects>
        <_>
          10 5 2 27 -1.</_>
        <_>
          10 14 2 9 3.</_></rects>
      <tilted>0</tilted></_>
    <_>
      <rects>
        <_>
          10 11 6 3 -1.</_>
        <_>
          12 11 2 3 3.</_></rects>
      <tilted>0</tilted></_>
    <_>
      <rects>
        <_>
          11 5 7 2 -1.</_>
        <_>
          11 6 7 1 2.</_></rects>
      <tilted>0</tilted></_>
    <_>
      <rects>
        <_>
          12 5 4 10 -1.</_>
        <_>
          12 5 2 5 2.</_>
        <_>
          14 10 2 5 2.</_></rects>
      <tilted>0</tilted></_>
    <_>
      <rects>
        <_>
          12 10 2 4 -1.</_>
        <_>
          12 10 1 2 2.</_>
        <_>
          13 12 1 2 2.</_></rects>
      <tilted>0</tilted></_>
    <_>
      <rects>
        <_>
          13 9 12 14 -1.</_>
        <_>
          13 9 6 7 2.</_>
        <_>
          19 16 6 7 2.</_></rects>
      <tilted>0</tilted></_>
    <_>
      <rects>
        <_>
          14 8 3 11 -1.</_>
        <_>
          15 8 1 11 3.</_></rects>
      <tilted>0</tilted></_>
    <_>
      <rects>
        <_>
          15 4 6 16 -1.</_>
        <_>
          15 4 3 8 2.</_>
        <_>
          18 12 3 8 2.</_></rects>
      <tilted>0</tilted></_>
    <_>
      <rects>
        <_>
          15 15 12 7 -1.</_>
        <_>
          19 15 4 7 3.</_></rects>
      <tilted>0</tilted></_>
    <_>
      <rects>
        <_>
          16 10 2 3 -1.</_>
        <_>
          17 10 1 3 2.</_></rects>
      <tilted>0</tilted></_>
    <_>
      <rects>
        <_>
          18 11 12 15 -1.</_>
        <_>
          24 11 6 15 2.</_></rects>
      <tilted>0</tilted></_>
    <_>
      <rects>
        <_>
          19 1 12 4 -1.</_>
        <_>
          19 3 12 2 2.</_></rects>
      <tilted>0</tilted></_>
    <_>
      <rects>
        <_>
          19 14 3 2 -1.</_>
        <_>
          20 14 1 2 3.</_></rects>
      <tilted>0</tilted></_></features></cascade>
</opencv_storage>
