<?xml version="1.0"?>
<opencv_storage>
<cascade>
  <stageType>BOOST</stageType>
  <featureType>HAAR</featureType>
  <height>64</height>
  <width>24</width>
  <stageParams>
    <boostType>GAB</boostType>
    <minHitRate>9.9500000476837158e-01</minHitRate>
    <maxFalseAlarm>5.0000000000000000e-01</maxFalseAlarm>
    <weightTrimRate>9.4999998807907104e-01</weightTrimRate>
    <maxDepth>1</maxDepth>
    <maxWeakCount>100</maxWeakCount></stageParams>
  <featureParams>
    <maxCatCount>0</maxCatCount>
    <featSize>1</featSize>
    <mode>BASIC</mode></featureParams>
  <stageNum>6</stageNum>
  <stages>
    <!-- stage 0 -->
    <_>
      <maxWeakCount>1</maxWeakCount>
      <stageThreshold>1.</stageThreshold>
      <weakClassifiers>
        <_>
          <internalNodes>
            0 -1 4 5.9440803527832031e-01</internalNodes>
          <leafValues>
            -1. 1.</leafValues></_></weakClassifiers></_>
    <!-- stage 1 -->
    <_>
      <maxWeakCount>1</maxWeakCount>
      <stageThreshold>1.</stageThreshold>
      <weakClassifiers>
        <_>
          <internalNodes>
            0 -1 3 9.9064551293849945e-02</internalNodes>
          <leafValues>
            -1. 1.</leafValues></_></weakClassifiers></_>
    <!-- stage 2 -->
    <_>
      <maxWeakCount>2</maxWeakCount>
      <stageThreshold>-1.4481700956821442e-01</stageThreshold>
      <weakClassifiers>
        <_>
          <internalNodes>
            0 -1 6 6.3778424263000488e-01</internalNodes>
          <leafValues>
            -9.5372748374938965e-01 8.1132078170776367e-01</leafValues></_>
        <_>
          <internalNodes>
            0 -1 7 -7.5488444417715073e-03</internalNodes>
          <leafValues>
            8.0891048908233643e-01 -9.2430418729782104e-01</leafValues></_></weakClassifiers></_>
    <!-- stage 3 -->
    <_>
      <maxWeakCount>2</maxWeakCount>
      <stageThreshold>-2.8013125061988831e-01</stageThreshold>
      <weakClassifiers>
        <_>
          <internalNodes>
            0 -1 5 -5.2847880870103836e-03</internalNodes>
          <leafValues>
            6.9302326440811157e-01 -9.0155440568923950e-01</leafValues></_>
        <_>
          <internalNodes>
            0 -1 9 3.6639294121414423e-03</internalNodes>
          <leafValues>
            -9.7315448522567749e-01 6.2528723478317261e-01</leafValues></_></weakClassifiers></_>
    <!-- stage 4 -->
    <_>
      <maxWeakCount>2</maxWeakCount>
      <stageThreshold>-2.6207327842712402e-01</stageThreshold>
      <weakClassifiers>
        <_>
          <internalNodes>
            0 -1 10 2.4463422596454620e-02</internalNodes>
          <leafValues>
            -9.5161288976669312e-01 6.7685592174530029e-01</leafValues></_>
        <_>
          <internalNodes>
            0 -1 2 4.2478130199015141e-03</internalNodes>
          <leafValues>
            -9.3892920017242432e-01 7.1157896518707275e-01</leafValues></_></weakClassifiers></_>
    <!-- stage 5 -->
    <_>
      <maxWeakCount>3</maxWeakCount>
      <stageThreshold>-1.1165028810501099e+00</stageThreshold>
      <weakClassifiers>
        <_>
          <internalNodes>
            0 -1 0 -3.9246734231710434e-03</internalNodes>
          <leafValues>
            8.0952382087707520e-01 -8.5436892509460449e-01</leafValues></_>
        <_>
          <internalNodes>
            0 -1 8 6.6473579406738281e-01</internalNodes>
          <leafValues>
            -8.6100298166275024e-01 6.9979602098464966e-01</leafValues></_>
        <_>
          <internalNodes>
            0 -1 1 -1.0694945231080055e-02</internalNodes>
          <leafValues>
            5.9886902570724487e-01 -9.3848413228988647e-01</leafValues></_></weakClassifiers></_></stages>
  <features>
    <_>
      <rects>
        <_>
          0 9 4 7 -1.</_>
        <_>
          2 9 2 7 2.</_></rects>
      <tilted>0</tilted></_>
    <_>
      <rects>
        <_>
          3 1 7 14 -1.</_>
        <_>
          3 8 7 7 2.</_></rects>
      <tilted>0</tilted></_>
    <_>
      <rects>
        <_>
          4 2 14 6 -1.</_>
        <_>
          4 2 7 3 2.</_>
        <_>
          11 5 7 3 2.</_></rects>
      <tilted>0</tilted></_>
    <_>
      <rects>
        <_>
          4 29 18 24 -1.</_>
        <_>
          10 29 6 24 3.</_></rects>
      <tilted>0</tilted></_>
    <_>
      <rects>
        <_>
          5 1 17 60 -1.</_>
        <_>
          5 21 17 20 3.</_></rects>
      <tilted>0</tilted></_>
    <_>
      <rects>
        <_>
          5 23 10 10 -1.</_>
        <_>
          5 23 5 5 2.</_>
        <_>
          10 28 5 5 2.</_></rects>
      <tilted>0</tilted></_>
    <_>
      <rects>
        <_>
          6 7 16 48 -1.</_>
        <_>
          6 23 16 16 3.</_></rects>
      <tilted>0</tilted></_>
    <_>
      <rects>
        <_>
          8 0 16 4 -1.</_>
        <_>
          8 2 16 2 2.</_></rects>
      <tilted>0</tilted></_>
    <_>
      <rects>
        <_>
          8 1 12 60 -1.</_>
        <_>
          8 21 12 20 3.</_></rects>
      <tilted>0</tilted></_>
    <_>
      <rects>
        <_>
          10 61 14 3 -1.</_>
        <_>
          17 61 7 3 2.</_></rects>
      <tilted>0</tilted></_>
    <_>
      <rects>
        <_>
          18 19 2 24 -1.</_>
        <_>
          18 27 2 8 3.</_></rects>
      <tilted>0</tilted></_></features></cascade>
</opencv_storage>
