<?xml version="1.0"?>
<opencv_storage>
<cascade>
  <stageType>BOOST</stageType>
  <featureType>HAAR</featureType>
  <height>24</height>
  <width>24</width>
  <stageParams>
    <boostType>GAB</boostType>
    <minHitRate>9.9500000476837158e-01</minHitRate>
    <maxFalseAlarm>5.0000000000000000e-01</maxFalseAlarm>
    <weightTrimRate>9.4999998807907104e-01</weightTrimRate>
    <maxDepth>1</maxDepth>
    <maxWeakCount>100</maxWeakCount></stageParams>
  <featureParams>
    <maxCatCount>0</maxCatCount>
    <featSize>1</featSize>
    <mode>BASIC</mode></featureParams>
  <stageNum>9</stageNum>
  <stages>
    <!-- stage 0 -->
    <_>
      <maxWeakCount>2</maxWeakCount>
      <stageThreshold>-3.1456600874662399e-02</stageThreshold>
      <weakClassifiers>
        <_>
          <internalNodes>
            0 -1 11 6.1295971274375916e-02</internalNodes>
          <leafValues>
            -9.8882681131362915e-01 9.3599998950958252e-01</leafValues></_>
        <_>
          <internalNodes>
            0 -1 10 8.4266975522041321e-02</internalNodes>
          <leafValues>
            -9.6745657920837402e-01 9.8536837100982666e-01</leafValues></_></weakClassifiers></_>
    <!-- stage 1 -->
    <_>
      <maxWeakCount>2</maxWeakCount>
      <stageThreshold>-5.5569332093000412e-02</stageThreshold>
      <weakClassifiers>
        <_>
          <internalNodes>
            0 -1 14 -4.0475822985172272e-02</internalNodes>
          <leafValues>
            9.1735535860061646e-01 -9.6132594347000122e-01</leafValues></_>
        <_>
          <internalNodes>
            0 -1 5 -2.7983850240707397e-01</internalNodes>
          <leafValues>
            9.0575665235519409e-01 -9.6220195293426514e-01</leafValues></_></weakClassifiers></_>
    <!-- stage 2 -->
    <_>
      <maxWeakCount>2</maxWeakCount>
      <stageThreshold>-1.3343693315982819e-01</stageThreshold>
      <weakClassifiers>
        <_>
          <internalNodes>
            0 -1 9 2.7763875201344490e-02</internalNodes>
          <leafValues>
            -9.5567864179611206e-01 8.8524591922760010e-01</leafValues></_>
        <_>
          <internalNodes>
            0 -1 8 1.7293354496359825e-02</internalNodes>
          <leafValues>
            -9.8320573568344116e-01 8.2224172353744507e-01</leafValues></_></weakClassifiers></_>
    <!-- stage 3 -->
    <_>
      <maxWeakCount>2</maxWeakCount>
      <stageThreshold>1.1740595102310181e-02</stageThreshold>
      <weakClassifiers>
        <_>
          <internalNodes>
            0 -1 12 -1.5902351588010788e-02</internalNodes>
          <leafValues>
            9.0476191043853760e-01 -8.7830686569213867e-01</leafValues></_>
        <_>
          <internalNodes>
            0 -1 16 -1.1148231104016304e-02</internalNodes>
          <leafValues>
            8.9004749059677124e-01 -8.7737071514129639e-01</leafValues></_></weakClassifiers></_>
    <!-- stage 4 -->
    <_>
      <maxWeakCount>2</maxWeakCount>
      <stageThreshold>-3.7007993459701538e-01</stageThreshold>
      <weakClassifiers>
        <_>
          <internalNodes>
            0 -1 0 -1.1609990894794464e-01</internalNodes>
          <leafValues>
            6.0264903306961060e-01 -9.8795181512832642e-01</leafValues></_>
        <_>
          <internalNodes>
            0 -1 15 1.2803396210074425e-02</internalNodes>
          <leafValues>
            -9.1607129573822021e-01 6.1787188053131104e-01</leafValues></_></weakClassifiers></_>
    <!-- stage 5 -->
    <_>
      <maxWeakCount>2</maxWeakCount>
      <stageThreshold>-4.0794390439987183e-01</stageThreshold>
      <weakClassifiers>
        <_>
          <internalNodes>
            0 -1 7 -3.2684794068336487e-01</internalNodes>
          <leafValues>
            4.4444444775581360e-01 -9.6261680126190186e-01</leafValues></_>
        <_>
          <internalNodes>
            0 -1 20 -9.2056080698966980e-02</internalNodes>
          <leafValues>
            7.0112055540084839e-01 -8.5238832235336304e-01</leafValues></_></weakClassifiers></_>
    <!-- stage 6 -->
    <_>
      <maxWeakCount>2</maxWeakCount>
      <stageThreshold>-3.5954284667968750e-01</stageThreshold>
      <weakClassifiers>
        <_>
          <internalNodes>
            0 -1 4 -1.3450392521917820e-02</internalNodes>
          <leafValues>
            6.0000002384185791e-01 -8.9235126972198486e-01</leafValues></_>
        <_>
          <internalNodes>
            0 -1 13 1.2178516015410423e-02</internalNodes>
          <leafValues>
            -9.5954281091690063e-01 6.0407590866088867e-01</leafValues></_></weakClassifiers></_>
    <!-- stage 7 -->
    <_>
      <maxWeakCount>4</maxWeakCount>
      <stageThreshold>-9.2351394891738892e-01</stageThreshold>
      <weakClassifiers>
        <_>
          <internalNodes>
            0 -1 1 -1.6247782111167908e-01</internalNodes>
          <leafValues>
            3.2960894703865051e-01 -9.7368419170379639e-01</leafValues></_>
        <_>
          <internalNodes>
            0 -1 18 -2.1797835826873779e-02</internalNodes>
          <leafValues>
            3.7666976451873779e-01 -9.0651279687881470e-01</leafValues></_>
        <_>
          <internalNodes>
            0 -1 19 -1.2215293943881989e-01</internalNodes>
          <leafValues>
            5.2379310131072998e-01 -8.5852414369583130e-01</leafValues></_>
        <_>
          <internalNodes>
            0 -1 6 4.8724651336669922e-02</internalNodes>
          <leafValues>
            -8.5029262304306030e-01 5.9477543830871582e-01</leafValues></_></weakClassifiers></_>
    <!-- stage 8 -->
    <_>
      <maxWeakCount>3</maxWeakCount>
      <stageThreshold>-1.2292903661727905e+00</stageThreshold>
      <weakClassifiers>
        <_>
          <internalNodes>
            0 -1 3 -9.6214964985847473e-02</internalNodes>
          <leafValues>
            4.3396225571632385e-01 -9.4444441795349121e-01</leafValues></_>
        <_>
          <internalNodes>
            0 -1 2 -8.5063338279724121e-02</internalNodes>
          <leafValues>
            6.8937259912490845e-01 -7.5263953208923340e-01</leafValues></_>
        <_>
          <internalNodes>
            0 -1 17 -4.7642276622354984e-03</internalNodes>
          <leafValues>
            5.3785473108291626e-01 -9.1061311960220337e-01</leafValues></_></weakClassifiers></_></stages>
  <features>
    <_>
      <rects>
        <_>
          0 0 15 13 -1.</_>
        <_>
          5 0 5 13 3.</_></rects>
      <tilted>0</tilted></_>
    <_>
      <rects>
        <_>
          0 0 10 24 -1.</_>
        <_>
          0 12 10 12 2.</_></rects>
      <tilted>0</tilted></_>
    <_>
      <rects>
        <_>
          0 1 6 22 -1.</_>
        <_>
          3 1 3 22 2.</_></rects>
      <tilted>0</tilted></_>
    <_>
      <rects>
        <_>
          0 10 20 10 -1.</_>
        <_>
          0 15 20 5 2.</_></rects>
      <tilted>0</tilted></_>
    <_>
      <rects>
        <_>
          0 23 12 1 -1.</_>
        <_>
          6 23 6 1 2.</_></rects>
      <tilted>0</tilted></_>
    <_>
      <rects>
        <_>
          3 0 15 18 -1.</_>
        <_>
          3 9 15 9 2.</_></rects>
      <tilted>0</tilted></_>
    <_>
      <rects>
        <_>
          4 0 10 8 -1.</_>
        <_>
          4 0 5 4 2.</_>
        <_>
          9 4 5 4 2.</_></rects>
      <tilted>0</tilted></_>
    <_>
      <rects>
        <_>
          4 0 18 18 -1.</_>
        <_>
          4 9 18 9 2.</_></rects>
      <tilted>0</tilted></_>
    <_>
      <rects>
        <_>
          4 14 10 6 -1.</_>
        <_>
          9 14 5 6 2.</_></rects>
      <tilted>0</tilted></_>
    <_>
      <rects>
        <_>
          5 1 12 4 -1.</_>
        <_>
          5 1 6 2 2.</_>
        <_>
          11 3 6 2 2.</_></rects>
      <tilted>0</tilted></_>
    <_>
      <rects>
        <_>
          6 5 15 4 -1.</_>
        <_>
          11 5 5 4 3.</_></rects>
      <tilted>0</tilted></_>
    <_>
      <rects>
        <_>
          7 5 15 3 -1.</_>
        <_>
          12 5 5 3 3.</_></rects>
      <tilted>0</tilted></_>
    <_>
      <rects>
        <_>
          8 0 12 2 -1.</_>
        <_>
          8 1 12 1 2.</_></rects>
      <tilted>0</tilted></_>
    <_>
      <rects>
        <_>
          8 9 12 4 -1.</_>
        <_>
          8 11 12 2 2.</_></rects>
      <tilted>0</tilted></_>
    <_>
      <rects>
        <_>
          9 12 10 9 -1.</_>
        <_>
          9 15 10 3 3.</_></rects>
      <tilted>0</tilted></_>
    <_>
      <rects>
        <_>
          10 23 14 1 -1.</_>
        <_>
          17 23 7 1 2.</_></rects>
      <tilted>0</tilted></_>
    <_>
      <rects>
        <_>
          12 1 6 3 -1.</_>
        <_>
          12 2 6 1 3.</_></rects>
      <tilted>0</tilted></_>
    <_>
      <rects>
        <_>
          12 18 8 2 -1.</_>
        <_>
          16 18 4 2 2.</_></rects>
      <tilted>0</tilted></_>
    <_>
      <rects>
        <_>
          14 1 10 4 -1.</_>
        <_>
          14 1 5 2 2.</_>
        <_>
          19 3 5 2 2.</_></rects>
      <tilted>0</tilted></_>
    <_>
      <rects>
        <_>
          15 0 7 18 -1.</_>
        <_>
          15 9 7 9 2.</_></rects>
      <tilted>0</tilted></_>
    <_>
      <rects>
        <_>
          15 3 9 20 -1.</_>
        <_>
          18 3 3 20 3.</_></rects>
      <tilted>0</tilted></_></features></cascade>
</opencv_storage>
