<?xml version="1.0"?>
<opencv_storage>
<cascade>
  <stageType>BOOST</stageType>
  <featureType>HAAR</featureType>
  <height>32</height>
  <width>32</width>
  <stageParams>
    <boostType>GAB</boostType>
    <minHitRate>9.9500000476837158e-01</minHitRate>
    <maxFalseAlarm>5.0000000000000000e-01</maxFalseAlarm>
    <weightTrimRate>9.4999998807907104e-01</weightTrimRate>
    <maxDepth>1</maxDepth>
    <maxWeakCount>100</maxWeakCount></stageParams>
  <featureParams>
    <maxCatCount>0</maxCatCount>
    <featSize>1</featSize>
    <mode>BASIC</mode></featureParams>
  <stageNum>15</stageNum>
  <stages>
    <!-- stage 0 -->
    <_>
      <maxWeakCount>3</maxWeakCount>
      <stageThreshold>-1.0593039989471436e+00</stageThreshold>
      <weakClassifiers>
        <_>
          <internalNodes>
            0 -1 8 4.5082621276378632e-02</internalNodes>
          <leafValues>
            -9.7546011209487915e-01 7.9310345649719238e-01</leafValues></_>
        <_>
          <internalNodes>
            0 -1 20 1.2477211654186249e-02</internalNodes>
          <leafValues>
            -8.4780675172805786e-01 9.2541730403900146e-01</leafValues></_>
        <_>
          <internalNodes>
            0 -1 31 3.2201714813709259e-02</internalNodes>
          <leafValues>
            -9.6394991874694824e-01 7.6396286487579346e-01</leafValues></_></weakClassifiers></_>
    <!-- stage 1 -->
    <_>
      <maxWeakCount>3</maxWeakCount>
      <stageThreshold>-1.1211413145065308e+00</stageThreshold>
      <weakClassifiers>
        <_>
          <internalNodes>
            0 -1 2 -2.2224374115467072e-02</internalNodes>
          <leafValues>
            8.4146338701248169e-01 -9.4642859697341919e-01</leafValues></_>
        <_>
          <internalNodes>
            0 -1 35 -3.6597829312086105e-03</internalNodes>
          <leafValues>
            7.8286218643188477e-01 -8.8958221673965454e-01</leafValues></_>
        <_>
          <internalNodes>
            0 -1 6 3.3386223018169403e-02</internalNodes>
          <leafValues>
            -8.8010442256927490e-01 7.1486949920654297e-01</leafValues></_></weakClassifiers></_>
    <!-- stage 2 -->
    <_>
      <maxWeakCount>2</maxWeakCount>
      <stageThreshold>-2.6614812016487122e-01</stageThreshold>
      <weakClassifiers>
        <_>
          <internalNodes>
            0 -1 14 -6.7228734493255615e-02</internalNodes>
          <leafValues>
            8.3116883039474487e-01 -8.9017343521118164e-01</leafValues></_>
        <_>
          <internalNodes>
            0 -1 18 9.6387080848217010e-03</internalNodes>
          <leafValues>
            -9.5733988285064697e-01 6.2402528524398804e-01</leafValues></_></weakClassifiers></_>
    <!-- stage 3 -->
    <_>
      <maxWeakCount>3</maxWeakCount>
      <stageThreshold>-9.3976294994354248e-01</stageThreshold>
      <weakClassifiers>
        <_>
          <internalNodes>
            0 -1 27 -9.9551305174827576e-03</internalNodes>
          <leafValues>
            8.6301368474960327e-01 -8.6440676450729370e-01</leafValues></_>
        <_>
          <internalNodes>
            0 -1 22 2.3530969396233559e-02</internalNodes>
          <leafValues>
            -9.5506441593170166e-01 6.6012942790985107e-01</leafValues></_>
        <_>
          <internalNodes>
            0 -1 12 -2.1107899025082588e-02</internalNodes>
          <leafValues>
            8.9206629991531372e-01 -7.3548555374145508e-01</leafValues></_></weakClassifiers></_>
    <!-- stage 4 -->
    <_>
      <maxWeakCount>3</maxWeakCount>
      <stageThreshold>-1.3031340837478638e+00</stageThreshold>
      <weakClassifiers>
        <_>
          <internalNodes>
            0 -1 25 -6.5242061391472816e-03</internalNodes>
          <leafValues>
            7.9487180709838867e-01 -8.8372093439102173e-01</leafValues></_>
        <_>
          <internalNodes>
            0 -1 0 -1.5813659876585007e-02</internalNodes>
          <leafValues>
            5.7058346271514893e-01 -9.4742745161056519e-01</leafValues></_>
        <_>
          <internalNodes>
            0 -1 9 5.5802473798394203e-03</internalNodes>
          <leafValues>
            -9.8209846019744873e-01 5.2801430225372314e-01</leafValues></_></weakClassifiers></_>
    <!-- stage 5 -->
    <_>
      <maxWeakCount>3</maxWeakCount>
      <stageThreshold>-7.8047740459442139e-01</stageThreshold>
      <weakClassifiers>
        <_>
          <internalNodes>
            0 -1 34 7.9204440116882324e-03</internalNodes>
          <leafValues>
            -8.1132078170776367e-01 9.3798446655273438e-01</leafValues></_>
        <_>
          <internalNodes>
            0 -1 10 -5.5182250216603279e-03</internalNodes>
          <leafValues>
            8.5357689857482910e-01 -6.5117543935775757e-01</leafValues></_>
        <_>
          <internalNodes>
            0 -1 4 -1.7849501222372055e-02</internalNodes>
          <leafValues>
            7.1746593713760376e-01 -8.2273358106613159e-01</leafValues></_></weakClassifiers></_>
    <!-- stage 6 -->
    <_>
      <maxWeakCount>2</maxWeakCount>
      <stageThreshold>-3.3614268898963928e-01</stageThreshold>
      <weakClassifiers>
        <_>
          <internalNodes>
            0 -1 23 -1.3994148932397366e-02</internalNodes>
          <leafValues>
            8.1944441795349121e-01 -8.3707863092422485e-01</leafValues></_>
        <_>
          <internalNodes>
            0 -1 7 3.0851293355226517e-02</internalNodes>
          <leafValues>
            -9.4120037555694580e-01 5.0093597173690796e-01</leafValues></_></weakClassifiers></_>
    <!-- stage 7 -->
    <_>
      <maxWeakCount>3</maxWeakCount>
      <stageThreshold>-1.0074455738067627e+00</stageThreshold>
      <weakClassifiers>
        <_>
          <internalNodes>
            0 -1 29 7.8918198123574257e-03</internalNodes>
          <leafValues>
            -8.1967210769653320e-01 8.9552241563796997e-01</leafValues></_>
        <_>
          <internalNodes>
            0 -1 1 -2.8645649552345276e-02</internalNodes>
          <leafValues>
            7.8597021102905273e-01 -7.6460850238800049e-01</leafValues></_>
        <_>
          <internalNodes>
            0 -1 3 -3.0136857181787491e-02</internalNodes>
          <leafValues>
            5.7683503627777100e-01 -9.4978541135787964e-01</leafValues></_></weakClassifiers></_>
    <!-- stage 8 -->
    <_>
      <maxWeakCount>3</maxWeakCount>
      <stageThreshold>-1.1688501834869385e+00</stageThreshold>
      <weakClassifiers>
        <_>
          <internalNodes>
            0 -1 28 -4.9193324521183968e-03</internalNodes>
          <leafValues>
            7.9452055692672729e-01 -8.3615821599960327e-01</leafValues></_>
        <_>
          <internalNodes>
            0 -1 30 9.0437922626733780e-03</internalNodes>
          <leafValues>
            -8.2904052734375000e-01 6.1293798685073853e-01</leafValues></_>
        <_>
          <internalNodes>
            0 -1 26 -6.2783681787550449e-03</internalNodes>
          <leafValues>
            5.7160484790802002e-01 -9.4562995433807373e-01</leafValues></_></weakClassifiers></_>
    <!-- stage 9 -->
    <_>
      <maxWeakCount>2</maxWeakCount>
      <stageThreshold>-3.4218361973762512e-01</stageThreshold>
      <weakClassifiers>
        <_>
          <internalNodes>
            0 -1 38 1.7108175903558731e-02</internalNodes>
          <leafValues>
            -8.3188408613204956e-01 6.9032257795333862e-01</leafValues></_>
        <_>
          <internalNodes>
            0 -1 13 -5.2091400139033794e-03</internalNodes>
          <leafValues>
            4.8970043659210205e-01 -9.9287486076354980e-01</leafValues></_></weakClassifiers></_>
    <!-- stage 10 -->
    <_>
      <maxWeakCount>2</maxWeakCount>
      <stageThreshold>-3.5906133055686951e-01</stageThreshold>
      <weakClassifiers>
        <_>
          <internalNodes>
            0 -1 17 -3.0461192131042480e-02</internalNodes>
          <leafValues>
            7.5000000000000000e-01 -8.0898874998092651e-01</leafValues></_>
        <_>
          <internalNodes>
            0 -1 19 4.8575520515441895e-02</internalNodes>
          <leafValues>
            -1. 4.4992741942405701e-01</leafValues></_></weakClassifiers></_>
    <!-- stage 11 -->
    <_>
      <maxWeakCount>3</maxWeakCount>
      <stageThreshold>-1.0984369516372681e+00</stageThreshold>
      <weakClassifiers>
        <_>
          <internalNodes>
            0 -1 32 1.1064107529819012e-02</internalNodes>
          <leafValues>
            -7.9178082942962646e-01 8.0740737915039063e-01</leafValues></_>
        <_>
          <internalNodes>
            0 -1 15 -3.2084037084132433e-03</internalNodes>
          <leafValues>
            6.3998335599899292e-01 -7.8071969747543335e-01</leafValues></_>
        <_>
          <internalNodes>
            0 -1 24 1.0032719001173973e-02</internalNodes>
          <leafValues>
            -9.4663953781127930e-01 5.0158601999282837e-01</leafValues></_></weakClassifiers></_>
    <!-- stage 12 -->
    <_>
      <maxWeakCount>4</maxWeakCount>
      <stageThreshold>-6.9468468427658081e-01</stageThreshold>
      <weakClassifiers>
        <_>
          <internalNodes>
            0 -1 33 3.9978073909878731e-03</internalNodes>
          <leafValues>
            -7.6693767309188843e-01 7.8625953197479248e-01</leafValues></_>
        <_>
          <internalNodes>
            0 -1 21 -2.4001220241189003e-02</internalNodes>
          <leafValues>
            5.9418696165084839e-01 -7.5494056940078735e-01</leafValues></_>
        <_>
          <internalNodes>
            0 -1 5 -1.7205808311700821e-02</internalNodes>
          <leafValues>
            4.6601596474647522e-01 -9.7314047813415527e-01</leafValues></_>
        <_>
          <internalNodes>
            0 -1 11 -2.7344198897480965e-02</internalNodes>
          <leafValues>
            4.5120644569396973e-01 -8.8820087909698486e-01</leafValues></_></weakClassifiers></_>
    <!-- stage 13 -->
    <_>
      <maxWeakCount>2</maxWeakCount>
      <stageThreshold>-3.3395746350288391e-01</stageThreshold>
      <weakClassifiers>
        <_>
          <internalNodes>
            0 -1 37 -4.4704941101372242e-03</internalNodes>
          <leafValues>
            6.9014084339141846e-01 -7.7653628587722778e-01</leafValues></_>
        <_>
          <internalNodes>
            0 -1 16 -3.9930129423737526e-04</internalNodes>
          <leafValues>
            -9.7777307033538818e-01 4.4257885217666626e-01</leafValues></_></weakClassifiers></_>
    <!-- stage 14 -->
    <_>
      <maxWeakCount>3</maxWeakCount>
      <stageThreshold>-1.1472880840301514e+00</stageThreshold>
      <weakClassifiers>
        <_>
          <internalNodes>
            0 -1 36 -5.3000058978796005e-03</internalNodes>
          <leafValues>
            4.8453608155250549e-01 -8.9542484283447266e-01</leafValues></_>
        <_>
          <internalNodes>
            0 -1 39 -7.8741619363427162e-03</internalNodes>
          <leafValues>
            7.2350782155990601e-01 -7.0924198627471924e-01</leafValues></_>
        <_>
          <internalNodes>
            0 -1 16 2.9323180206120014e-04</internalNodes>
          <leafValues>
            4.5737871527671814e-01 -1.</leafValues></_></weakClassifiers></_></stages>
  <features>
    <_>
      <rects>
        <_>
          3 11 12 11 -1.</_>
        <_>
          9 11 6 11 2.</_></rects>
      <tilted>0</tilted></_>
    <_>
      <rects>
        <_>
          5 3 6 22 -1.</_>
        <_>
          8 3 3 22 2.</_></rects>
      <tilted>0</tilted></_>
    <_>
      <rects>
        <_>
          5 4 6 22 -1.</_>
        <_>
          8 4 3 22 2.</_></rects>
      <tilted>0</tilted></_>
    <_>
      <rects>
        <_>
          5 4 24 15 -1.</_>
        <_>
          13 4 8 15 3.</_></rects>
      <tilted>0</tilted></_>
    <_>
      <rects>
        <_>
          5 5 10 6 -1.</_>
        <_>
          5 7 10 2 3.</_></rects>
      <tilted>0</tilted></_>
    <_>
      <rects>
        <_>
          5 17 15 8 -1.</_>
        <_>
          10 17 5 8 3.</_></rects>
      <tilted>0</tilted></_>
    <_>
      <rects>
        <_>
          6 6 10 9 -1.</_>
        <_>
          6 9 10 3 3.</_></rects>
      <tilted>0</tilted></_>
    <_>
      <rects>
        <_>
          7 12 18 12 -1.</_>
        <_>
          7 16 18 4 3.</_></rects>
      <tilted>0</tilted></_>
    <_>
      <rects>
        <_>
          9 5 12 8 -1.</_>
        <_>
          9 9 12 4 2.</_></rects>
      <tilted>0</tilted></_>
    <_>
      <rects>
        <_>
          9 7 20 12 -1.</_>
        <_>
          19 7 10 12 2.</_></rects>
      <tilted>0</tilted></_>
    <_>
      <rects>
        <_>
          9 12 3 8 -1.</_>
        <_>
          10 12 1 8 3.</_></rects>
      <tilted>0</tilted></_>
    <_>
      <rects>
        <_>
          10 0 4 12 -1.</_>
        <_>
          10 4 4 4 3.</_></rects>
      <tilted>0</tilted></_>
    <_>
      <rects>
        <_>
          10 0 12 4 -1.</_>
        <_>
          10 2 12 2 2.</_></rects>
      <tilted>0</tilted></_>
    <_>
      <rects>
        <_>
          10 10 9 10 -1.</_>
        <_>
          10 15 9 5 2.</_></rects>
      <tilted>0</tilted></_>
    <_>
      <rects>
        <_>
          11 18 16 12 -1.</_>
        <_>
          11 22 16 4 3.</_></rects>
      <tilted>0</tilted></_>
    <_>
      <rects>
        <_>
          12 0 2 4 -1.</_>
        <_>
          12 2 2 2 2.</_></rects>
      <tilted>0</tilted></_>
    <_>
      <rects>
        <_>
          12 3 2 4 -1.</_>
        <_>
          12 5 2 2 2.</_></rects>
      <tilted>0</tilted></_>
    <_>
      <rects>
        <_>
          12 7 6 15 -1.</_>
        <_>
          14 7 2 15 3.</_></rects>
      <tilted>0</tilted></_>
    <_>
      <rects>
        <_>
          12 9 8 16 -1.</_>
        <_>
          12 9 4 8 2.</_>
        <_>
          16 17 4 8 2.</_></rects>
      <tilted>0</tilted></_>
    <_>
      <rects>
        <_>
          14 3 9 16 -1.</_>
        <_>
          14 11 9 8 2.</_></rects>
      <tilted>0</tilted></_>
    <_>
      <rects>
        <_>
          14 13 6 5 -1.</_>
        <_>
          16 13 2 5 3.</_></rects>
      <tilted>0</tilted></_>
    <_>
      <rects>
        <_>
          14 20 6 12 -1.</_>
        <_>
          14 24 6 4 3.</_></rects>
      <tilted>0</tilted></_>
    <_>
      <rects>
        <_>
          15 7 10 6 -1.</_>
        <_>
          15 10 10 3 2.</_></rects>
      <tilted>0</tilted></_>
    <_>
      <rects>
        <_>
          16 7 4 12 -1.</_>
        <_>
          16 7 2 6 2.</_>
        <_>
          18 13 2 6 2.</_></rects>
      <tilted>0</tilted></_>
    <_>
      <rects>
        <_>
          17 8 10 10 -1.</_>
        <_>
          17 8 5 5 2.</_>
        <_>
          22 13 5 5 2.</_></rects>
      <tilted>0</tilted></_>
    <_>
      <rects>
        <_>
          18 12 3 9 -1.</_>
        <_>
          19 12 1 9 3.</_></rects>
      <tilted>0</tilted></_>
    <_>
      <rects>
        <_>
          19 6 9 6 -1.</_>
        <_>
          22 6 3 6 3.</_></rects>
      <tilted>0</tilted></_>
    <_>
      <rects>
        <_>
          20 10 6 3 -1.</_>
        <_>
          22 10 2 3 3.</_></rects>
      <tilted>0</tilted></_>
    <_>
      <rects>
        <_>
          20 13 2 10 -1.</_>
        <_>
          20 13 1 5 2.</_>
        <_>
          21 18 1 5 2.</_></rects>
      <tilted>0</tilted></_>
    <_>
      <rects>
        <_>
          20 13 3 7 -1.</_>
        <_>
          21 13 1 7 3.</_></rects>
      <tilted>0</tilted></_>
    <_>
      <rects>
        <_>
          20 20 10 6 -1.</_>
        <_>
          20 20 5 3 2.</_>
        <_>
          25 23 5 3 2.</_></rects>
      <tilted>0</tilted></_>
    <_>
      <rects>
        <_>
          22 5 3 21 -1.</_>
        <_>
          22 12 3 7 3.</_></rects>
      <tilted>0</tilted></_>
    <_>
      <rects>
        <_>
          23 10 3 10 -1.</_>
        <_>
          24 10 1 10 3.</_></rects>
      <tilted>0</tilted></_>
    <_>
      <rects>
        <_>
          23 12 2 3 -1.</_>
        <_>
          24 12 1 3 2.</_></rects>
      <tilted>0</tilted></_>
    <_>
      <rects>
        <_>
          23 13 3 7 -1.</_>
        <_>
          24 13 1 7 3.</_></rects>
      <tilted>0</tilted></_>
    <_>
      <rects>
        <_>
          24 19 6 2 -1.</_>
        <_>
          26 19 2 2 3.</_></rects>
      <tilted>0</tilted></_>
    <_>
      <rects>
        <_>
          25 4 1 9 -1.</_>
        <_>
          25 7 1 3 3.</_></rects>
      <tilted>0</tilted></_>
    <_>
      <rects>
        <_>
          25 13 3 3 -1.</_>
        <_>
          26 13 1 3 3.</_></rects>
      <tilted>0</tilted></_>
    <_>
      <rects>
        <_>
          26 12 6 12 -1.</_>
        <_>
          26 12 3 6 2.</_>
        <_>
          29 18 3 6 2.</_></rects>
      <tilted>0</tilted></_>
    <_>
      <rects>
        <_>
          28 14 1 12 -1.</_>
        <_>
          28 18 1 4 3.</_></rects>
      <tilted>0</tilted></_></features></cascade>
</opencv_storage>
